Compilación iniciada a las 08/09/2014 0:03:19.
     1>Proyecto "C:\Users\Adiel\Desktop\borrar\opencv6\opencv6\opencv6.vcxproj" en el nodo 2 (Build destinos).
     1>Link:
         D:\Instalaciones\Microsoft Visual Studio 11.0\VC\bin\x86_amd64\link.exe /ERRORREPORT:PROMPT /OUT:"C:\Users\Adiel\Desktop\borrar\opencv6\x64\Debug\opencv6.exe" /INCREMENTAL /NOLOGO /LIBPATH:C:\opencv\build\x86\vc11\lib opencv_core249d.lib opencv_imgproc249d.lib opencv_highgui249d.lib opencv_ml249d.lib opencv_video249d.lib opencv_features2d249d.lib opencv_calib3d249d.lib opencv_objdetect249d.lib opencv_contrib249d.lib opencv_legacy249d.lib opencv_flann249d.lib kernel32.lib user32.lib gdi32.lib winspool.lib comdlg32.lib advapi32.lib shell32.lib ole32.lib oleaut32.lib uuid.lib odbc32.lib odbccp32.lib /MANIFEST /MANIFESTUAC:"level='asInvoker' uiAccess='false'" /manifest:embed /DEBUG /PDB:"C:\Users\Adiel\Desktop\borrar\opencv6\x64\Debug\opencv6.pdb" /ASSEMBLYDEBUG /SUBSYSTEM:CONSOLE /TLBID:1 /DYNAMICBASE /FIXED:NO /NXCOMPAT /MACHINE:X64 x64\Debug\app.res
         x64\Debug\AssemblyInfo.obj
         x64\Debug\opencv6.obj
         x64\Debug\stdafx.obj
         "x64\Debug\.NETFramework,Version=v4.5.AssemblyAttributes.obj"
     1>opencv6.obj : error LNK2028: se hace referencia al sÝmbolo (token) sin resolver (0A0005D1) "extern "C" int __cdecl cvWaitKey(int)" (?cvWaitKey@@$$J0YAHH@Z) en la funci¾n "int __cdecl main(void)" (?main@@$$HYAHXZ)
     1>opencv6.obj : error LNK2028: se hace referencia al sÝmbolo (token) sin resolver (0A0005D2) "extern "C" struct _IplImage * __cdecl cvLoadImage(char const *,int)" (?cvLoadImage@@$$J0YAPEAU_IplImage@@PEBDH@Z) en la funci¾n "int __cdecl main(void)" (?main@@$$HYAHXZ)
     1>opencv6.obj : error LNK2028: se hace referencia al sÝmbolo (token) sin resolver (0A000608) "public: void __cdecl cv::Mat::copySize(class cv::Mat const &)" (?copySize@Mat@cv@@$$FQEAAXAEBV12@@Z) en la funci¾n "public: __cdecl cv::Mat::Mat(class cv::Mat const &)" (??0Mat@cv@@$$FQEAA@AEBV01@@Z)
     1>opencv6.obj : error LNK2028: se hace referencia al sÝmbolo (token) sin resolver (0A000609) "int __cdecl cv::_interlockedExchangeAdd(int *,int)" (?_interlockedExchangeAdd@cv@@$$FYAHPEAHH@Z) en la funci¾n "public: void __cdecl cv::SparseMat::addref(void)" (?addref@SparseMat@cv@@$$FQEAAXXZ)
     1>opencv6.obj : error LNK2019: sÝmbolo externo "int __cdecl cv::_interlockedExchangeAdd(int *,int)" (?_interlockedExchangeAdd@cv@@$$FYAHPEAHH@Z) sin resolver al que se hace referencia en la funci¾n "public: void __cdecl cv::SparseMat::addref(void)" (?addref@SparseMat@cv@@$$FQEAAXXZ)
     1>opencv6.obj : error LNK2019: sÝmbolo externo "extern "C" struct _IplImage * __cdecl cvLoadImage(char const *,int)" (?cvLoadImage@@$$J0YAPEAU_IplImage@@PEBDH@Z) sin resolver al que se hace referencia en la funci¾n "int __cdecl main(void)" (?main@@$$HYAHXZ)
     1>opencv6.obj : error LNK2019: sÝmbolo externo "extern "C" int __cdecl cvWaitKey(int)" (?cvWaitKey@@$$J0YAHH@Z) sin resolver al que se hace referencia en la funci¾n "int __cdecl main(void)" (?main@@$$HYAHXZ)
     1>opencv6.obj : error LNK2019: sÝmbolo externo "public: void __cdecl cv::Mat::copySize(class cv::Mat const &)" (?copySize@Mat@cv@@$$FQEAAXAEBV12@@Z) sin resolver al que se hace referencia en la funci¾n "public: __cdecl cv::Mat::Mat(class cv::Mat const &)" (??0Mat@cv@@$$FQEAA@AEBV01@@Z)
     1>opencv6.obj : error LNK2001: sÝmbolo externo "public: virtual void __cdecl cv::HOGDescriptor::setSVMDetector(class cv::_InputArray const &)" (?setSVMDetector@HOGDescriptor@cv@@UEAAXAEBV_InputArray@2@@Z) sin resolver
     1>opencv6.obj : error LNK2001: sÝmbolo externo "public: virtual bool __cdecl cv::HOGDescriptor::read(class cv::FileNode &)" (?read@HOGDescriptor@cv@@UEAA_NAEAVFileNode@2@@Z) sin resolver
     1>opencv6.obj : error LNK2001: sÝmbolo externo "public: virtual void __cdecl cv::HOGDescriptor::write(class cv::FileStorage &,class std::basic_string<char,struct std::char_traits<char>,class std::allocator<char> > const &)const " (?write@HOGDescriptor@cv@@UEBAXAEAVFileStorage@2@AEBV?$basic_string@DU?$char_traits@D@std@@V?$allocator@D@2@@std@@@Z) sin resolver
     1>opencv6.obj : error LNK2001: sÝmbolo externo "public: virtual bool __cdecl cv::HOGDescriptor::load(class std::basic_string<char,struct std::char_traits<char>,class std::allocator<char> > const &,class std::basic_string<char,struct std::char_traits<char>,class std::allocator<char> > const &)" (?load@HOGDescriptor@cv@@UEAA_NAEBV?$basic_string@DU?$char_traits@D@std@@V?$allocator@D@2@@std@@0@Z) sin resolver
     1>opencv6.obj : error LNK2001: sÝmbolo externo "public: virtual void __cdecl cv::HOGDescriptor::save(class std::basic_string<char,struct std::char_traits<char>,class std::allocator<char> > const &,class std::basic_string<char,struct std::char_traits<char>,class std::allocator<char> > const &)const " (?save@HOGDescriptor@cv@@UEBAXAEBV?$basic_string@DU?$char_traits@D@std@@V?$allocator@D@2@@std@@0@Z) sin resolver
     1>opencv6.obj : error LNK2001: sÝmbolo externo "public: virtual void __cdecl cv::HOGDescriptor::copyTo(struct cv::HOGDescriptor &)const " (?copyTo@HOGDescriptor@cv@@UEBAXAEAU12@@Z) sin resolver
     1>opencv6.obj : error LNK2001: sÝmbolo externo "public: virtual void __cdecl cv::HOGDescriptor::compute(class cv::Mat const &,class std::vector<float,class std::allocator<float> > &,class cv::Size_<int>,class cv::Size_<int>,class std::vector<class cv::Point_<int>,class std::allocator<class cv::Point_<int> > > const &)const " (?compute@HOGDescriptor@cv@@UEBAXAEBVMat@2@AEAV?$vector@MV?$allocator@M@std@@@std@@V?$Size_@H@2@2AEBV?$vector@V?$Point_@H@cv@@V?$allocator@V?$Point_@H@cv@@@std@@@5@@Z) sin resolver
     1>opencv6.obj : error LNK2001: sÝmbolo externo "public: virtual void __cdecl cv::HOGDescriptor::detect(class cv::Mat const &,class std::vector<class cv::Point_<int>,class std::allocator<class cv::Point_<int> > > &,double,class cv::Size_<int>,class cv::Size_<int>,class std::vector<class cv::Point_<int>,class std::allocator<class cv::Point_<int> > > const &)const " (?detect@HOGDescriptor@cv@@UEBAXAEBVMat@2@AEAV?$vector@V?$Point_@H@cv@@V?$allocator@V?$Point_@H@cv@@@std@@@std@@NV?$Size_@H@2@2AEBV45@@Z) sin resolver
     1>opencv6.obj : error LNK2001: sÝmbolo externo "public: virtual void __cdecl cv::HOGDescriptor::detect(class cv::Mat const &,class std::vector<class cv::Point_<int>,class std::allocator<class cv::Point_<int> > > &,class std::vector<double,class std::allocator<double> > &,double,class cv::Size_<int>,class cv::Size_<int>,class std::vector<class cv::Point_<int>,class std::allocator<class cv::Point_<int> > > const &)const " (?detect@HOGDescriptor@cv@@UEBAXAEBVMat@2@AEAV?$vector@V?$Point_@H@cv@@V?$allocator@V?$Point_@H@cv@@@std@@@std@@AEAV?$vector@NV?$allocator@N@std@@@5@NV?$Size_@H@2@3AEBV45@@Z) sin resolver
     1>opencv6.obj : error LNK2001: sÝmbolo externo "public: virtual void __cdecl cv::HOGDescriptor::detectMultiScale(class cv::Mat const &,class std::vector<class cv::Rect_<int>,class std::allocator<class cv::Rect_<int> > > &,double,class cv::Size_<int>,class cv::Size_<int>,double,double,bool)const " (?detectMultiScale@HOGDescriptor@cv@@UEBAXAEBVMat@2@AEAV?$vector@V?$Rect_@H@cv@@V?$allocator@V?$Rect_@H@cv@@@std@@@std@@NV?$Size_@H@2@2NN_N@Z) sin resolver
     1>opencv6.obj : error LNK2001: sÝmbolo externo "public: virtual void __cdecl cv::HOGDescriptor::detectMultiScale(class cv::Mat const &,class std::vector<class cv::Rect_<int>,class std::allocator<class cv::Rect_<int> > > &,class std::vector<double,class std::allocator<double> > &,double,class cv::Size_<int>,class cv::Size_<int>,double,double,bool)const " (?detectMultiScale@HOGDescriptor@cv@@UEBAXAEBVMat@2@AEAV?$vector@V?$Rect_@H@cv@@V?$allocator@V?$Rect_@H@cv@@@std@@@std@@AEAV?$vector@NV?$allocator@N@std@@@5@NV?$Size_@H@2@3NN_N@Z) sin resolver
     1>opencv6.obj : error LNK2001: sÝmbolo externo "public: virtual void __cdecl cv::HOGDescriptor::computeGradient(class cv::Mat const &,class cv::Mat &,class cv::Mat &,class cv::Size_<int>,class cv::Size_<int>)const " (?computeGradient@HOGDescriptor@cv@@UEBAXAEBVMat@2@AEAV32@1V?$Size_@H@2@2@Z) sin resolver
     1>C:\Users\Adiel\Desktop\borrar\opencv6\x64\Debug\opencv6.exe : fatal error LNK1120: 20 externos sin resolver
     1>Compilación del proyecto terminada "C:\Users\Adiel\Desktop\borrar\opencv6\opencv6\opencv6.vcxproj" (Build destinos) -- ERROR.

ERROR al compilar.

Tiempo transcurrido 00:00:00.51
